#pragma once
#include <cstdarg>
namespace Eloquent {
    namespace ML {
        namespace Port {
            class XGBClassifier {
                public:
                    /**
                    * Predict class for features vector
                    */
                    int predict(float *x) {
                        float votes[5] = { 0.0f };
                        // tree #1
                        if (x[3] <= 66.665) {
                            if (x[3] <= 58.795) {
                                if (x[4] <= 1010.75) {
                                    if (x[3] <= 54.89) {
                                        votes[0] += 0.053097345;
                                    }

                                    else {
                                        votes[0] += -0.004132231;
                                    }
                                }

                                else {
                                    if (x[3] <= 52.879997) {
                                        votes[0] += 0.10530921;
                                    }

                                    else {
                                        votes[0] += 0.07660794;
                                    }
                                }
                            }

                            else {
                                if (x[4] <= 1021.95) {
                                    if (x[3] <= 61.905) {
                                        votes[0] += 0.047935903;
                                    }

                                    else {
                                        votes[0] += 0.020051746;
                                    }
                                }

                                else {
                                    if (x[2] <= 15.15) {
                                        votes[0] += 0.060161974;
                                    }

                                    else {
                                        votes[0] += 0.004385965;
                                    }
                                }
                            }
                        }

                        else {
                            if (x[4] <= 1022.55) {
                                if (x[3] <= 76.505005) {
                                    if (x[2] <= -0.85) {
                                        votes[0] += 0.027504105;
                                    }

                                    else {
                                        votes[0] += -0.008764027;
                                    }
                                }

                                else {
                                    if (x[2] <= 2.95) {
                                        votes[0] += -0.0055092718;
                                    }

                                    else {
                                        votes[0] += -0.024491332;
                                    }
                                }
                            }

                            else {
                                if (x[3] <= 76.205) {
                                    if (x[2] <= 9.05) {
                                        votes[0] += 0.036943134;
                                    }

                                    else {
                                        votes[0] += 0.014084506;
                                    }
                                }

                                else {
                                    if (x[2] <= -0.45) {
                                        votes[0] += 0.045193683;
                                    }

                                    else {
                                        votes[0] += -0.008354219;
                                    }
                                }
                            }
                        }

                        // tree #2
                        if (x[4] <= 1013.35) {
                            if (x[3] <= 69.315) {
                                if (x[3] <= 64.66) {
                                    if (x[3] <= 57.025) {
                                        votes[1] += -0.024221452;
                                    }

                                    else {
                                        votes[1] += 0.0156112565;
                                    }
                                }

                                else {
                                    if (x[2] <= -1.75) {
                                        votes[1] += -0.0251938;
                                    }

                                    else {
                                        votes[1] += 0.056501985;
                                    }
                                }
                            }

                            else {
                                if (x[2] <= -1.05) {
                                    if (x[0] <= 0.05) {
                                        votes[1] += -0.028008297;
                                    }

                                    else {
                                        votes[1] += 0.03823529;
                                    }
                                }

                                else {
                                    if (x[3] <= 79.285) {
                                        votes[1] += 0.08492612;
                                    }

                                    else {
                                        votes[1] += 0.10912482;
                                    }
                                }
                            }
                        }

                        else {
                            if (x[3] <= 72.905) {
                                if (x[3] <= 64.729996) {
                                    if (x[4] <= 1021.75) {
                                        votes[1] += -0.0128135225;
                                    }

                                    else {
                                        votes[1] += -0.024725273;
                                    }
                                }

                                else {
                                    if (x[4] <= 1020.75) {
                                        votes[1] += 0.023126528;
                                    }

                                    else {
                                        votes[1] += -0.006740914;
                                    }
                                }
                            }

                            else {
                                if (x[4] <= 1018.75) {
                                    if (x[2] <= -0.25) {
                                        votes[1] += 0.015927976;
                                    }

                                    else {
                                        votes[1] += 0.07413767;
                                    }
                                }

                                else {
                                    if (x[3] <= 85.645004) {
                                        votes[1] += 0.021270221;
                                    }

                                    else {
                                        votes[1] += 0.05778269;
                                    }
                                }
                            }
                        }

                        // tree #3
                        if (x[4] <= 1013.65) {
                            if (x[3] <= 78.93) {
                                if (x[4] <= 1007.35) {
                                    if (x[3] <= 65.545) {
                                        votes[2] += 0.0147058815;
                                    }

                                    else {
                                        votes[2] += -0.013869815;
                                    }
                                }

                                else {
                                    if (x[2] <= -1.6500001) {
                                        votes[2] += 0.05160142;
                                    }

                                    else {
                                        votes[2] += 0.009154184;
                                    }
                                }
                            }

                            else {
                                if (x[0] <= 6.55) {
                                    if (x[4] <= 1006.15) {
                                        votes[2] += -0.01947395;
                                    }

                                    else {
                                        votes[2] += 0.0031645566;
                                    }
                                }

                                else {
                                    if (x[4] <= 1006.75) {
                                        votes[2] += -0.027972028;
                                    }

                                    else {
                                        votes[2] += -0.01997496;
                                    }
                                }
                            }
                        }

                        else {
                            if (x[3] <= 86.67) {
                                if (x[3] <= 57.315002) {
                                    if (x[3] <= 51.855003) {
                                        votes[2] += -0.019230768;
                                    }

                                    else {
                                        votes[2] += -0.0012128562;
                                    }
                                }

                                else {
                                    if (x[1] <= 15.75) {
                                        votes[2] += 0.021155154;
                                    }

                                    else {
                                        votes[2] += 0.036368318;
                                    }
                                }
                            }

                            else {
                                if (x[4] <= 1021.75) {
                                    if (x[2] <= 1.3) {
                                        votes[2] += 0.02919708;
                                    }

                                    else {
                                        votes[2] += -0.01825907;
                                    }
                                }

                                else {
                                    if (x[3] <= 89.25) {
                                        votes[2] += 0.018406337;
                                    }

                                    else {
                                        votes[2] += -0.0036636423;
                                    }
                                }
                            }
                        }

                        // tree #4
                        if (x[4] <= 1025.8501) {
                            if (x[1] <= -5.8500004) {
                                if (x[2] <= -4.4) {
                                    if (x[2] <= -5.35) {
                                        votes[3] += 0.004385965;
                                    }

                                    else {
                                        votes[3] += -0.019230768;
                                    }
                                }

                                else {
                                    votes[3] += 0.026315788;
                                }
                            }

                            else {
                                if (x[3] <= 76.774994) {
                                    if (x[0] <= 12.75) {
                                        votes[3] += -0.028771514;
                                    }

                                    else {
                                        votes[3] += -0.030891737;
                                    }
                                }

                                else {
                                    if (x[4] <= 1017.05) {
                                        votes[3] += -0.029039515;
                                    }

                                    else {
                                        votes[3] += -0.023352643;
                                    }
                                }
                            }
                        }

                        else {
                            if (x[3] <= 80.125) {
                                if (x[4] <= 1042.1001) {
                                    if (x[1] <= 6.8500004) {
                                        votes[3] += -0.020997373;
                                    }

                                    else {
                                        votes[3] += -0.029727912;
                                    }
                                }

                                else {
                                    votes[3] += 0.026315788;
                                }
                            }

                            else {
                                if (x[0] <= 5.95) {
                                    if (x[4] <= 1026.25) {
                                        votes[3] += 0.009259259;
                                    }

                                    else {
                                        votes[3] += -0.026578072;
                                    }
                                }

                                else {
                                    if (x[3] <= 81.045) {
                                        votes[3] += 0.047445253;
                                    }

                                    else {
                                        votes[3] += -0.009241555;
                                    }
                                }
                            }
                        }

                        // tree #5
                        if (x[0] <= -0.15) {
                            if (x[2] <= -4.8500004) {
                                if (x[0] <= -1.3) {
                                    votes[4] += -0.023809522;
                                }

                                else {
                                    votes[4] += 0.004385965;
                                }
                            }

                            else {
                                if (x[3] <= 82.7) {
                                    if (x[0] <= -0.75) {
                                        votes[4] += 0.04012346;
                                    }

                                    else {
                                        votes[4] += -0.020547945;
                                    }
                                }

                                else {
                                    if (x[4] <= 1001.3) {
                                        votes[4] += 0.079896905;
                                    }

                                    else {
                                        votes[4] += 0.042452827;
                                    }
                                }
                            }
                        }

                        else {
                            if (x[0] <= 0.05) {
                                if (x[2] <= -2.85) {
                                    votes[4] += -0.021604938;
                                }

                                else {
                                    votes[4] += 0.026315788;
                                }
                            }

                            else {
                                votes[4] += -0.031236494;
                            }
                        }

                        // tree #6
                        if (x[3] <= 66.665) {
                            if (x[3] <= 58.795) {
                                if (x[4] <= 1010.75) {
                                    if (x[3] <= 54.89) {
                                        votes[0] += 0.049992256;
                                    }

                                    else {
                                        votes[0] += -0.004302864;
                                    }
                                }

                                else {
                                    if (x[3] <= 52.879997) {
                                        votes[0] += 0.09496279;
                                    }

                                    else {
                                        votes[0] += 0.07031706;
                                    }
                                }
                            }

                            else {
                                if (x[4] <= 1021.95) {
                                    if (x[3] <= 61.905) {
                                        votes[0] += 0.044946905;
                                    }

                                    else {
                                        votes[0] += 0.019094294;
                                    }
                                }

                                else {
                                    if (x[4] <= 1023.85) {
                                        votes[0] += 0.04337075;
                                    }

                                    else {
                                        votes[0] += 0.059823263;
                                    }
                                }
                            }
                        }

                        else {
                            if (x[4] <= 1018.65) {
                                if (x[2] <= -1.05) {
                                    if (x[4] <= 1001.75) {
                                        votes[0] += -0.007177637;
                                    }

                                    else {
                                        votes[0] += 0.028789878;
                                    }
                                }

                                else {
                                    if (x[3] <= 74.155) {
                                        votes[0] += -0.008766628;
                                    }

                                    else {
                                        votes[0] += -0.023054926;
                                    }
                                }
                            }

                            else {
                                if (x[3] <= 78.005005) {
                                    if (x[4] <= 1025.25) {
                                        votes[0] += 0.006234797;
                                    }

                                    else {
                                        votes[0] += 0.03321324;
                                    }
                                }

                                else {
                                    if (x[2] <= -0.65) {
                                        votes[0] += 0.032822948;
                                    }

                                    else {
                                        votes[0] += -0.010711676;
                                    }
                                }
                            }
                        }

                        // tree #7
                        if (x[4] <= 1013.65) {
                            if (x[3] <= 69.315) {
                                if (x[3] <= 64.66) {
                                    if (x[4] <= 1010.95) {
                                        votes[1] += 0.018814802;
                                    }

                                    else {
                                        votes[1] += -0.013227927;
                                    }
                                }

                                else {
                                    if (x[2] <= -1.75) {
                                        votes[1] += -0.024992766;
                                    }

                                    else {
                                        votes[1] += 0.05296083;
                                    }
                                }
                            }

                            else {
                                if (x[2] <= -1.05) {
                                    if (x[0] <= 0.05) {
                                        votes[1] += -0.027921662;
                                    }

                                    else {
                                        votes[1] += 0.031334516;
                                    }
                                }

                                else {
                                    if (x[4] <= 1007.45) {
                                        votes[1] += 0.098973736;
                                    }

                                    else {
                                        votes[1] += 0.07790499;
                                    }
                                }
                            }
                        }

                        else {
                            if (x[3] <= 73.865005) {
                                if (x[3] <= 63.940002) {
                                    if (x[4] <= 1016.15) {
                                        votes[1] += -0.0022774728;
                                    }

                                    else {
                                        votes[1] += -0.02135004;
                                    }
                                }

                                else {
                                    if (x[4] <= 1019.25) {
                                        votes[1] += 0.02456764;
                                    }

                                    else {
                                        votes[1] += -0.0037816453;
                                    }
                                }
                            }

                            else {
                                if (x[4] <= 1018.75) {
                                    if (x[3] <= 86.67) {
                                        votes[1] += 0.060021516;
                                    }

                                    else {
                                        votes[1] += 0.08688387;
                                    }
                                }

                                else {
                                    if (x[3] <= 85.645004) {
                                        votes[1] += 0.021313751;
                                    }

                                    else {
                                        votes[1] += 0.053707786;
                                    }
                                }
                            }
                        }

                        // tree #8
                        if (x[4] <= 1015.35) {
                            if (x[3] <= 78.925) {
                                if (x[4] <= 1007.35) {
                                    if (x[3] <= 65.545) {
                                        votes[2] += 0.0141456295;
                                    }

                                    else {
                                        votes[2] += -0.01358557;
                                    }
                                }

                                else {
                                    if (x[3] <= 70.024994) {
                                        votes[2] += 0.01753373;
                                    }

                                    else {
                                        votes[2] += 0.0057388074;
                                    }
                                }
                            }

                            else {
                                if (x[4] <= 1006.75) {
                                    if (x[2] <= 3.65) {
                                        votes[2] += -0.015478727;
                                    }

                                    else {
                                        votes[2] += -0.027850974;
                                    }
                                }

                                else {
                                    if (x[0] <= 6.55) {
                                        votes[2] += 0.00054851774;
                                    }

                                    else {
                                        votes[2] += -0.017773736;
                                    }
                                }
                            }
                        }

                        else {
                            if (x[3] <= 88.555) {
                                if (x[3] <= 58.415) {
                                    if (x[3] <= 51.855003) {
                                        votes[2] += -0.022255914;
                                    }

                                    else {
                                        votes[2] += 0.0025876362;
                                    }
                                }

                                else {
                                    if (x[1] <= 15.75) {
                                        votes[2] += 0.020972876;
                                    }

                                    else {
                                        votes[2] += 0.038544282;
                                    }
                                }
                            }

                            else {
                                if (x[4] <= 1025.2) {
                                    if (x[2] <= 2.05) {
                                        votes[2] += 0.0067065866;
                                    }

                                    else {
                                        votes[2] += -0.017726254;
                                    }
                                }

                                else {
                                    if (x[0] <= 3.1999998) {
                                        votes[2] += -0.017328072;
                                    }

                                    else {
                                        votes[2] += 0.014988738;
                                    }
                                }
                            }
                        }

                        // tree #9
                        if (x[4] <= 1025.8501) {
                            if (x[1] <= -5.8500004) {
                                if (x[2] <= -4.4) {
                                    if (x[4] <= 1004.5) {
                                        votes[3] += 0.004398096;
                                    }

                                    else {
                                        votes[3] += -0.019125227;
                                    }
                                }

                                else {
                                    votes[3] += 0.025946533;
                                }
                            }

                            else {
                                if (x[3] <= 76.774994) {
                                    if (x[0] <= 12.75) {
                                        votes[3] += -0.028495729;
                                    }

                                    else {
                                        votes[3] += -0.030642873;
                                    }
                                }

                                else {
                                    if (x[4] <= 1010.65) {
                                        votes[3] += -0.029885208;
                                    }

                                    else {
                                        votes[3] += -0.02477949;
                                    }
                                }
                            }
                        }

                        else {
                            if (x[3] <= 80.125) {
                                if (x[4] <= 1042.1001) {
                                    if (x[1] <= 6.8500004) {
                                        votes[3] += -0.020653643;
                                    }

                                    else {
                                        votes[3] += -0.029469594;
                                    }
                                }

                                else {
                                    votes[3] += 0.025886526;
                                }
                            }

                            else {
                                if (x[0] <= 5.95) {
                                    if (x[4] <= 1026.75) {
                                        votes[3] += 0.0003761832;
                                    }

                                    else {
                                        votes[3] += -0.026944777;
                                    }
                                }

                                else {
                                    if (x[3] <= 81.045) {
                                        votes[3] += 0.045444082;
                                    }

                                    else {
                                        votes[3] += -0.008977212;
                                    }
                                }
                            }
                        }

                        // tree #10
                        if (x[0] <= -0.15) {
                            if (x[2] <= -4.8500004) {
                                if (x[3] <= 69.36) {
                                    votes[4] += 0.004627463;
                                }

                                else {
                                    votes[4] += -0.023635052;
                                }
                            }

                            else {
                                if (x[3] <= 82.7) {
                                    if (x[0] <= -0.75) {
                                        votes[4] += 0.038936272;
                                    }

                                    else {
                                        votes[4] += -0.020341655;
                                    }
                                }

                                else {
                                    if (x[4] <= 1001.3) {
                                        votes[4] += 0.074930966;
                                    }

                                    else {
                                        votes[4] += 0.040890496;
                                    }
                                }
                            }
                        }

                        else {
                            if (x[0] <= 0.05) {
                                if (x[2] <= -2.85) {
                                    votes[4] += -0.021397563;
                                }

                                else {
                                    votes[4] += 0.025590798;
                                }
                            }

                            else {
                                votes[4] += -0.03099334;
                            }
                        }

                        // tree #11
                        if (x[3] <= 66.665) {
                            if (x[3] <= 58.795) {
                                if (x[4] <= 1010.75) {
                                    if (x[3] <= 54.89) {
                                        votes[0] += 0.04766361;
                                    }

                                    else {
                                        votes[0] += -0.004328543;
                                    }
                                }

                                else {
                                    if (x[3] <= 52.879997) {
                                        votes[0] += 0.08657337;
                                    }

                                    else {
                                        votes[0] += 0.064877845;
                                    }
                                }
                            }

                            else {
                                if (x[4] <= 1021.95) {
                                    if (x[3] <= 61.905) {
                                        votes[0] += 0.04221964;
                                    }

                                    else {
                                        votes[0] += 0.018222094;
                                    }
                                }

                                else {
                                    if (x[4] <= 1036.75) {
                                        votes[0] += 0.052298367;
                                    }

                                    else {
                                        votes[0] += 0.0023301153;
                                    }
                                }
                            }
                        }

                        else {
                            if (x[4] <= 1017.25) {
                                if (x[2] <= -1.05) {
                                    if (x[4] <= 1001.75) {
                                        votes[0] += -0.007179743;
                                    }

                                    else {
                                        votes[0] += 0.031758558;
                                    }
                                }

                                else {
                                    if (x[3] <= 79.215) {
                                        votes[0] += -0.014189324;
                                    }

                                    else {
                                        votes[0] += -0.025223462;
                                    }
                                }
                            }

                            else {
                                if (x[3] <= 78.005005) {
                                    if (x[4] <= 1025.25) {
                                        votes[0] += 0.005056852;
                                    }

                                    else {
                                        votes[0] += 0.031500947;
                                    }
                                }

                                else {
                                    if (x[2] <= -0.45) {
                                        votes[0] += 0.026435642;
                                    }

                                    else {
                                        votes[0] += -0.011533811;
                                    }
                                }
                            }
                        }

                        // tree #12
                        if (x[4] <= 1015.95) {
                            if (x[3] <= 67.86) {
                                if (x[3] <= 64.67) {
                                    if (x[0] <= 14.25) {
                                        votes[1] += 0.021289067;
                                    }

                                    else {
                                        votes[1] += -0.0098083345;
                                    }
                                }

                                else {
                                    if (x[0] <= 5.15) {
                                        votes[1] += -0.010950035;
                                    }

                                    else {
                                        votes[1] += 0.040707882;
                                    }
                                }
                            }

                            else {
                                if (x[4] <= 1007.45) {
                                    if (x[0] <= 0.05) {
                                        votes[1] += -0.02703449;
                                    }

                                    else {
                                        votes[1] += 0.0884409;
                                    }
                                }

                                else {
                                    if (x[3] <= 79.19) {
                                        votes[1] += 0.054700967;
                                    }

                                    else {
                                        votes[1] += 0.07638561;
                                    }
                                }
                            }
                        }

                        else {
                            if (x[3] <= 72.965) {
                                if (x[3] <= 63.445) {
                                    if (x[4] <= 1016.15) {
                                        votes[1] += 0.014255904;
                                    }

                                    else {
                                        votes[1] += -0.021762967;
                                    }
                                }

                                else {
                                    if (x[4] <= 1022.65) {
                                        votes[1] += 0.009314886;
                                    }

                                    else {
                                        votes[1] += -0.011026058;
                                    }
                                }
                            }

                            else {
                                if (x[4] <= 1021.95) {
                                    if (x[3] <= 87.149994) {
                                        votes[1] += 0.044133957;
                                    }

                                    else {
                                        votes[1] += 0.07610222;
                                    }
                                }

                                else {
                                    if (x[3] <= 85.865005) {
                                        votes[1] += 0.011883471;
                                    }

                                    else {
                                        votes[1] += 0.04731177;
                                    }
                                }
                            }
                        }

                        // tree #13
                        if (x[4] <= 1015.95) {
                            if (x[3] <= 78.925) {
                                if (x[4] <= 1007.35) {
                                    if (x[3] <= 65.545) {
                                        votes[2] += 0.013692523;
                                    }

                                    else {
                                        votes[2] += -0.013227132;
                                    }
                                }

                                else {
                                    if (x[0] <= 21.55) {
                                        votes[2] += 0.0125648035;
                                    }

                                    else {
                                        votes[2] += -0.010666578;
                                    }
                                }
                            }

                            else {
                                if (x[4] <= 1006.75) {
                                    if (x[2] <= 3.65) {
                                        votes[2] += -0.015126618;
                                    }

                                    else {
                                        votes[2] += -0.02756252;
                                    }
                                }

                                else {
                                    if (x[0] <= 6.55) {
                                        votes[2] += 0.0006551295;
                                    }

                                    else {
                                        votes[2] += -0.017034912;
                                    }
                                }
                            }
                        }

                        else {
                            if (x[3] <= 88.555) {
                                if (x[3] <= 57.315002) {
                                    if (x[3] <= 53.555) {
                                        votes[2] += -0.017121742;
                                    }

                                    else {
                                        votes[2] += 0.0028667033;
                                    }
                                }

                                else {
                                    if (x[1] <= 15.75) {
                                        votes[2] += 0.020659711;
                                    }

                                    else {
                                        votes[2] += 0.03603269;
                                    }
                                }
                            }

                            else {
                                if (x[4] <= 1025.2) {
                                    if (x[2] <= 2.05) {
                                        votes[2] += 0.0067151003;
                                    }

                                    else {
                                        votes[2] += -0.016856456;
                                    }
                                }

                                else {
                                    if (x[0] <= 3.1999998) {
                                        votes[2] += -0.017068116;
                                    }

                                    else {
                                        votes[2] += 0.014531473;
                                    }
                                }
                            }
                        }

                        // tree #14
                        if (x[4] <= 1025.8501) {
                            if (x[1] <= -5.8500004) {
                                if (x[2] <= -4.4) {
                                    if (x[2] <= -5.35) {
                                        votes[3] += 0.004638842;
                                    }

                                    else {
                                        votes[3] += -0.019083936;
                                    }
                                }

                                else {
                                    votes[3] += 0.02567631;
                                }
                            }

                            else {
                                if (x[3] <= 76.774994) {
                                    if (x[0] <= 12.75) {
                                        votes[3] += -0.028230488;
                                    }

                                    else {
                                        votes[3] += -0.030404646;
                                    }
                                }

                                else {
                                    if (x[4] <= 1010.65) {
                                        votes[3] += -0.029627636;
                                    }

                                    else {
                                        votes[3] += -0.024474509;
                                    }
                                }
                            }
                        }

                        else {
                            if (x[3] <= 80.125) {
                                if (x[4] <= 1042.1001) {
                                    if (x[1] <= 6.8500004) {
                                        votes[3] += -0.020301761;
                                    }

                                    else {
                                        votes[3] += -0.029204879;
                                    }
                                }

                                else {
                                    votes[3] += 0.025479442;
                                }
                            }

                            else {
                                if (x[0] <= 5.95) {
                                    if (x[4] <= 1026.25) {
                                        votes[3] += 0.009537391;
                                    }

                                    else {
                                        votes[3] += -0.025992453;
                                    }
                                }

                                else {
                                    if (x[3] <= 81.045) {
                                        votes[3] += 0.04358311;
                                    }

                                    else {
                                        votes[3] += -0.008698844;
                                    }
                                }
                            }
                        }

                        // tree #15
                        if (x[0] <= -0.15) {
                            if (x[2] <= -4.8500004) {
                                if (x[0] <= -1.3) {
                                    votes[4] += -0.023423268;
                                }

                                else {
                                    votes[4] += 0.0046366053;
                                }
                            }

                            else {
                                if (x[3] <= 82.7) {
                                    if (x[0] <= -0.75) {
                                        votes[4] += 0.03804183;
                                    }

                                    else {
                                        votes[4] += -0.020122318;
                                    }
                                }

                                else {
                                    if (x[3] <= 94.72) {
                                        votes[4] += 0.054721218;
                                    }

                                    else {
                                        votes[4] += 0.017348347;
                                    }
                                }
                            }
                        }

                        else {
                            if (x[0] <= 0.05) {
                                if (x[2] <= -2.85) {
                                    votes[4] += -0.021184957;
                                }

                                else {
                                    votes[4] += 0.0249835;
                                }
                            }

                            else {
                                votes[4] += -0.030761098;
                            }
                        }

                        // tree #16
                        if (x[3] <= 68.125) {
                            if (x[3] <= 61.92) {
                                if (x[3] <= 57.305) {
                                    if (x[2] <= 15.55) {
                                        votes[0] += 0.06915629;
                                    }

                                    else {
                                        votes[0] += 0.0005978917;
                                    }
                                }

                                else {
                                    if (x[1] <= 18.45) {
                                        votes[0] += 0.038940884;
                                    }

                                    else {
                                        votes[0] += 0.061486688;
                                    }
                                }
                            }

                            else {
                                if (x[4] <= 1023.55) {
                                    if (x[4] <= 1013.35) {
                                        votes[0] += -0.00088837;
                                    }

                                    else {
                                        votes[0] += 0.023299003;
                                    }
                                }

                                else {
                                    if (x[1] <= 3.85) {
                                        votes[0] += 0.0076129246;
                                    }

                                    else {
                                        votes[0] += 0.052171346;
                                    }
                                }
                            }
                        }

                        else {
                            if (x[4] <= 1023.15) {
                                if (x[3] <= 76.505005) {
                                    if (x[4] <= 1014.55) {
                                        votes[0] += -0.014194572;
                                    }

                                    else {
                                        votes[0] += -0.0010189917;
                                    }
                                }

                                else {
                                    if (x[2] <= 2.95) {
                                        votes[0] += -0.0044253897;
                                    }

                                    else {
                                        votes[0] += -0.023440585;
                                    }
                                }
                            }

                            else {
                                if (x[3] <= 79.89) {
                                    if (x[0] <= 2.25) {
                                        votes[0] += 0.06601072;
                                    }

                                    else {
                                        votes[0] += 0.016938742;
                                    }
                                }

                                else {
                                    if (x[2] <= 0.05) {
                                        votes[0] += 0.022423089;
                                    }

                                    else {
                                        votes[0] += -0.009363345;
                                    }
                                }
                            }
                        }

                        // tree #17
                        if (x[4] <= 1016.15) {
                            if (x[3] <= 67.86) {
                                if (x[3] <= 61.305) {
                                    if (x[3] <= 53.535004) {
                                        votes[1] += -0.028394883;
                                    }

                                    else {
                                        votes[1] += -0.0022493412;
                                    }
                                }

                                else {
                                    if (x[0] <= 5.1) {
                                        votes[1] += -0.0090433955;
                                    }

                                    else {
                                        votes[1] += 0.029452965;
                                    }
                                }
                            }

                            else {
                                if (x[2] <= -0.65) {
                                    if (x[0] <= 0.05) {
                                        votes[1] += -0.027915362;
                                    }

                                    else {
                                        votes[1] += 0.03334596;
                                    }
                                }

                                else {
                                    if (x[3] <= 79.115005) {
                                        votes[1] += 0.059031304;
                                    }

                                    else {
                                        votes[1] += 0.07955344;
                                    }
                                }
                            }
                        }

                        else {
                            if (x[3] <= 72.965) {
                                if (x[3] <= 63.445) {
                                    if (x[2] <= -0.15) {
                                        votes[1] += -0.00566884;
                                    }

                                    else {
                                        votes[1] += -0.022360379;
                                    }
                                }

                                else {
                                    if (x[4] <= 1022.65) {
                                        votes[1] += 0.008710493;
                                    }

                                    else {
                                        votes[1] += -0.010794285;
                                    }
                                }
                            }

                            else {
                                if (x[2] <= -0.95) {
                                    if (x[0] <= 0.55) {
                                        votes[1] += -0.029882515;
                                    }

                                    else {
                                        votes[1] += -0.0042376113;
                                    }
                                }

                                else {
                                    if (x[3] <= 86.925) {
                                        votes[1] += 0.029980255;
                                    }

                                    else {
                                        votes[1] += 0.057460707;
                                    }
                                }
                            }
                        }

                        // tree #18
                        if (x[4] <= 1013.65) {
                            if (x[3] <= 78.335) {
                                if (x[4] <= 1007.35) {
                                    if (x[3] <= 65.545) {
                                        votes[2] += 0.013194554;
                                    }

                                    else {
                                        votes[2] += -0.01271831;
                                    }
                                }

                                else {
                                    if (x[2] <= -1.6500001) {
                                        votes[2] += 0.049768437;
                                    }

                                    else {
                                        votes[2] += 0.008846398;
                                    }
                                }
                            }

                            else {
                                if (x[0] <= 6.55) {
                                    if (x[4] <= 1006.15) {
                                        votes[2] += -0.01814464;
                                    }

                                    else {
                                        votes[2] += 0.0030148595;
                                    }
                                }

                                else {
                                    if (x[4] <= 1006.75) {
                                        votes[2] += -0.02675279;
                                    }

                                    else {
                                        votes[2] += -0.018194795;
                                    }
                                }
                            }
                        }

                        else {
                            if (x[3] <= 86.67) {
                                if (x[3] <= 57.315002) {
                                    if (x[3] <= 51.855003) {
                                        votes[2] += -0.018238014;
                                    }

                                    else {
                                        votes[2] += -0.0011568897;
                                    }
                                }

                                else {
                                    if (x[4] <= 1017.15) {
                                        votes[2] += 0.011673793;
                                    }

                                    else {
                                        votes[2] += 0.025649667;
                                    }
                                }
                            }

                            else {
                                if (x[4] <= 1021.75) {
                                    if (x[2] <= 1.3) {
                                        votes[2] += 0.028388118;
                                    }

                                    else {
                                        votes[2] += -0.017665973;
                                    }
                                }

                                else {
                                    if (x[3] <= 89.25) {
                                        votes[2] += 0.016736727;
                                    }

                                    else {
                                        votes[2] += -0.0034469464;
                                    }
                                }
                            }
                        }

                        // tree #19
                        if (x[4] <= 1025.8501) {
                            if (x[0] <= -0.45) {
                                if (x[3] <= 85.48) {
                                    if (x[2] <= -3.4) {
                                        votes[3] += -0.0059423414;
                                    }

                                    else {
                                        votes[3] += 0.049740925;
                                    }
                                }

                                else {
                                    votes[3] += -0.025566077;
                                }
                            }

                            else {
                                if (x[3] <= 95.07) {
                                    if (x[3] <= 76.774994) {
                                        votes[3] += -0.029422877;
                                    }

                                    else {
                                        votes[3] += -0.02696082;
                                    }
                                }

                                else {
                                    if (x[4] <= 1024.75) {
                                        votes[3] += -0.019085515;
                                    }

                                    else {
                                        votes[3] += 0.021116048;
                                    }
                                }
                            }
                        }

                        else {
                            if (x[3] <= 80.125) {
                                if (x[4] <= 1042.1001) {
                                    if (x[1] <= 6.8500004) {
                                        votes[3] += -0.019977918;
                                    }

                                    else {
                                        votes[3] += -0.028957749;
                                    }
                                }

                                else {
                                    votes[3] += 0.02495382;
                                }
                            }

                            else {
                                if (x[0] <= 5.95) {
                                    if (x[4] <= 1026.75) {
                                        votes[3] += 0.00087459834;
                                    }

                                    else {
                                        votes[3] += -0.0264166;
                                    }
                                }

                                else {
                                    if (x[3] <= 81.045) {
                                        votes[3] += 0.041761365;
                                    }

                                    else {
                                        votes[3] += -0.0084592765;
                                    }
                                }
                            }
                        }

                        // tree #20
                        if (x[0] <= -0.15) {
                            if (x[2] <= -4.8500004) {
                                if (x[3] <= 69.36) {
                                    votes[4] += 0.0048926007;
                                }

                                else {
                                    votes[4] += -0.023255242;
                                }
                            }

                            else {
                                if (x[3] <= 82.7) {
                                    if (x[0] <= -0.75) {
                                        votes[4] += 0.037358865;
                                    }

                                    else {
                                        votes[4] += -0.019873505;
                                    }
                                }

                                else {
                                    if (x[1] <= -4.65) {
                                        votes[4] += 0.027852371;
                                    }

                                    else {
                                        votes[4] += 0.056252014;
                                    }
                                }
                            }
                        }

                        else {
                            if (x[0] <= 0.05) {
                                if (x[3] <= 82.42) {
                                    votes[4] += -0.022059327;
                                }

                                else {
                                    votes[4] += 0.03406724;
                                }
                            }

                            else {
                                votes[4] += -0.030539084;
                            }
                        }

                        // tree #21
                        if (x[3] <= 68.125) {
                            if (x[3] <= 61.92) {
                                if (x[3] <= 57.305) {
                                    if (x[2] <= 15.55) {
                                        votes[0] += 0.0640954;
                                    }

                                    else {
                                        votes[0] += 0.0003175573;
                                    }
                                }

                                else {
                                    if (x[1] <= 18.45) {
                                        votes[0] += 0.0367107;
                                    }

                                    else {
                                        votes[0] += 0.05745196;
                                    }
                                }
                            }

                            else {
                                if (x[4] <= 1013.35) {
                                    if (x[0] <= 5.1499996) {
                                        votes[0] += 0.034507494;
                                    }

                                    else {
                                        votes[0] += -0.005475726;
                                    }
                                }

                                else {
                                    if (x[4] <= 1023.55) {
                                        votes[0] += 0.022193387;
                                    }

                                    else {
                                        votes[0] += 0.044311754;
                                    }
                                }
                            }
                        }

                        else {
                            if (x[4] <= 1023.15) {
                                if (x[4] <= 1010.45) {
                                    if (x[0] <= 1.45) {
                                        votes[0] += 0.01262856;
                                    }

                                    else {
                                        votes[0] += -0.023977479;
                                    }
                                }

                                else {
                                    if (x[3] <= 74.020004) {
                                        votes[0] += -0.0008391607;
                                    }

                                    else {
                                        votes[0] += -0.014936502;
                                    }
                                }
                            }

                            else {
                                if (x[3] <= 76.205) {
                                    if (x[4] <= 1028.8501) {
                                        votes[0] += 0.018658483;
                                    }

                                    else {
                                        votes[0] += 0.03869042;
                                    }
                                }

                                else {
                                    if (x[2] <= -0.45) {
                                        votes[0] += 0.040773574;
                                    }

                                    else {
                                        votes[0] += -0.0071017966;
                                    }
                                }
                            }
                        }

                        // tree #22
                        if (x[3] <= 69.905) {
                            if (x[4] <= 1016.25) {
                                if (x[3] <= 64.67) {
                                    if (x[0] <= 14.35) {
                                        votes[1] += 0.01837605;
                                    }

                                    else {
                                        votes[1] += -0.008459282;
                                    }
                                }

                                else {
                                    if (x[2] <= 11.05) {
                                        votes[1] += 0.045998253;
                                    }

                                    else {
                                        votes[1] += 0.016532086;
                                    }
                                }
                            }

                            else {
                                if (x[3] <= 63.355) {
                                    if (x[4] <= 1021.65) {
                                        votes[1] += -0.016852362;
                                    }

                                    else {
                                        votes[1] += -0.025391756;
                                    }
                                }

                                else {
                                    if (x[4] <= 1025.6499) {
                                        votes[1] += 0.0013774566;
                                    }

                                    else {
                                        votes[1] += -0.018388284;
                                    }
                                }
                            }
                        }

                        else {
                            if (x[4] <= 1017.15) {
                                if (x[4] <= 1008.85) {
                                    if (x[0] <= 0.05) {
                                        votes[1] += -0.027124172;
                                    }

                                    else {
                                        votes[1] += 0.07482819;
                                    }
                                }

                                else {
                                    if (x[3] <= 79.19) {
                                        votes[1] += 0.045385223;
                                    }

                                    else {
                                        votes[1] += 0.06498982;
                                    }
                                }
                            }

                            else {
                                if (x[3] <= 85.645004) {
                                    if (x[4] <= 1023.15) {
                                        votes[1] += 0.030508405;
                                    }

                                    else {
                                        votes[1] += 0.0049106875;
                                    }
                                }

                                else {
                                    if (x[0] <= 0.15) {
                                        votes[1] += -0.027123392;
                                    }

                                    else {
                                        votes[1] += 0.04844714;
                                    }
                                }
                            }
                        }

                        // tree #23
                        if (x[4] <= 1013.65) {
                            if (x[3] <= 78.93) {
                                if (x[4] <= 1007.35) {
                                    if (x[3] <= 65.545) {
                                        votes[2] += 0.012701209;
                                    }

                                    else {
                                        votes[2] += -0.0125918975;
                                    }
                                }

                                else {
                                    if (x[3] <= 71.425) {
                                        votes[2] += 0.016894637;
                                    }

                                    else {
                                        votes[2] += 0.0016876558;
                                    }
                                }
                            }

                            else {
                                if (x[0] <= 6.55) {
                                    if (x[4] <= 1006.15) {
                                        votes[2] += -0.01807897;
                                    }

                                    else {
                                        votes[2] += 0.0037331206;
                                    }
                                }

                                else {
                                    if (x[4] <= 1006.75) {
                                        votes[2] += -0.026832307;
                                    }

                                    else {
                                        votes[2] += -0.018715529;
                                    }
                                }
                            }
                        }

                        else {
                            if (x[3] <= 86.67) {
                                if (x[3] <= 57.315002) {
                                    if (x[3] <= 51.855003) {
                                        votes[2] += -0.017936056;
                                    }

                                    else {
                                        votes[2] += -0.0010309577;
                                    }
                                }

                                else {
                                    if (x[1] <= 15.75) {
                                        votes[2] += 0.017381597;
                                    }

                                    else {
                                        votes[2] += 0.029907718;
                                    }
                                }
                            }

                            else {
                                if (x[4] <= 1021.75) {
                                    if (x[2] <= 1.3) {
                                        votes[2] += 0.02753672;
                                    }

                                    else {
                                        votes[2] += -0.017374663;
                                    }
                                }

                                else {
                                    if (x[3] <= 89.25) {
                                        votes[2] += 0.01625054;
                                    }

                                    else {
                                        votes[2] += -0.003278733;
                                    }
                                }
                            }
                        }

                        // tree #24
                        if (x[4] <= 1025.8501) {
                            if (x[0] <= -0.45) {
                                if (x[3] <= 85.48) {
                                    if (x[2] <= -3.4) {
                                        votes[3] += -0.0058584777;
                                    }

                                    else {
                                        votes[3] += 0.048304882;
                                    }
                                }

                                else {
                                    votes[3] += -0.025362734;
                                }
                            }

                            else {
                                if (x[3] <= 95.07) {
                                    if (x[3] <= 76.774994) {
                                        votes[3] += -0.029194703;
                                    }

                                    else {
                                        votes[3] += -0.026683003;
                                    }
                                }

                                else {
                                    if (x[4] <= 1024.75) {
                                        votes[3] += -0.018748885;
                                    }

                                    else {
                                        votes[3] += 0.020797458;
                                    }
                                }
                            }
                        }

                        else {
                            if (x[3] <= 80.125) {
                                if (x[4] <= 1042.3501) {
                                    if (x[1] <= 6.8500004) {
                                        votes[3] += -0.019670172;
                                    }

                                    else {
                                        votes[3] += -0.028711274;
                                    }
                                }

                                else {
                                    votes[3] += 0.03373711;
                                }
                            }

                            else {
                                if (x[0] <= 5.95) {
                                    if (x[4] <= 1026.75) {
                                        votes[3] += 0.0010599484;
                                    }

                                    else {
                                        votes[3] += -0.026132775;
                                    }
                                }

                                else {
                                    if (x[3] <= 81.045) {
                                        votes[3] += 0.04034336;
                                    }

                                    else {
                                        votes[3] += -0.008150832;
                                    }
                                }
                            }
                        }

                        // tree #25
                        if (x[0] <= -0.15) {
                            if (x[2] <= -4.8500004) {
                                if (x[0] <= -1.3) {
                                    votes[4] += -0.023068467;
                                }

                                else {
                                    votes[4] += 0.0049490617;
                                }
                            }

                            else {
                                if (x[3] <= 82.7) {
                                    if (x[0] <= -0.75) {
                                        votes[4] += 0.036105216;
                                    }

                                    else {
                                        votes[4] += -0.019710459;
                                    }
                                }

                                else {
                                    if (x[0] <= -0.35000002) {
                                        votes[4] += 0.03631299;
                                    }

                                    else {
                                        votes[4] += 0.06716856;
                                    }
                                }
                            }
                        }

                        else {
                            if (x[0] <= 0.05) {
                                if (x[3] <= 82.42) {
                                    votes[4] += -0.02192013;
                                }

                                else {
                                    votes[4] += 0.03310273;
                                }
                            }

                            else {
                                votes[4] += -0.030325955;
                            }
                        }

                        // tree #26
                        if (x[3] <= 68.28) {
                            if (x[3] <= 61.92) {
                                if (x[3] <= 57.684998) {
                                    if (x[4] <= 1010.75) {
                                        votes[0] += 0.024398725;
                                    }

                                    else {
                                        votes[0] += 0.05996682;
                                    }
                                }

                                else {
                                    if (x[0] <= 17.95) {
                                        votes[0] += 0.033804074;
                                    }

                                    else {
                                        votes[0] += 0.051267147;
                                    }
                                }
                            }

                            else {
                                if (x[4] <= 1013.35) {
                                    if (x[0] <= 5.1499996) {
                                        votes[0] += 0.033116654;
                                    }

                                    else {
                                        votes[0] += -0.0060553392;
                                    }
                                }

                                else {
                                    if (x[4] <= 1023.55) {
                                        votes[0] += 0.021269003;
                                    }

                                    else {
                                        votes[0] += 0.04170094;
                                    }
                                }
                            }
                        }

                        else {
                            if (x[4] <= 1023.15) {
                                if (x[2] <= -1.05) {
                                    if (x[4] <= 1001.75) {
                                        votes[0] += -0.010096029;
                                    }

                                    else {
                                        votes[0] += 0.019921077;
                                    }
                                }

                                else {
                                    if (x[3] <= 78.985) {
                                        votes[0] += -0.01015722;
                                    }

                                    else {
                                        votes[0] += -0.022219976;
                                    }
                                }
                            }

                            else {
                                if (x[3] <= 79.89) {
                                    if (x[0] <= 2.25) {
                                        votes[0] += 0.05969102;
                                    }

                                    else {
                                        votes[0] += 0.01532311;
                                    }
                                }

                                else {
                                    if (x[2] <= 0.45) {
                                        votes[0] += 0.01845458;
                                    }

                                    else {
                                        votes[0] += -0.00928499;
                                    }
                                }
                            }
                        }

                        // tree #27
                        if (x[3] <= 69.905) {
                            if (x[4] <= 1016.25) {
                                if (x[3] <= 64.67) {
                                    if (x[0] <= 14.35) {
                                        votes[1] += 0.017697958;
                                    }

                                    else {
                                        votes[1] += -0.00821682;
                                    }
                                }

                                else {
                                    if (x[2] <= 11.05) {
                                        votes[1] += 0.043316938;
                                    }

                                    else {
                                        votes[1] += 0.015731025;
                                    }
                                }
                            }

                            else {
                                if (x[3] <= 63.355) {
                                    if (x[4] <= 1021.65) {
                                        votes[1] += -0.016520288;
                                    }

                                    else {
                                        votes[1] += -0.025110457;
                                    }
                                }

                                else {
                                    if (x[4] <= 1025.6499) {
                                        votes[1] += 0.0013148774;
                                    }

                                    else {
                                        votes[1] += -0.018066699;
                                    }
                                }
                            }
                        }

                        else {
                            if (x[4] <= 1017.15) {
                                if (x[0] <= 0.05) {
                                    votes[1] += -0.027816474;
                                }

                                else {
                                    if (x[4] <= 1008.85) {
                                        votes[1] += 0.06937215;
                                    }

                                    else {
                                        votes[1] += 0.052687306;
                                    }
                                }
                            }

                            else {
                                if (x[3] <= 85.645004) {
                                    if (x[4] <= 1024.55) {
                                        votes[1] += 0.027146025;
                                    }

                                    else {
                                        votes[1] += 0.002300682;
                                    }
                                }

                                else {
                                    if (x[2] <= -1.4) {
                                        votes[1] += -0.026823953;
                                    }

                                    else {
                                        votes[1] += 0.045473482;
                                    }
                                }
                            }
                        }

                        // tree #28
                        if (x[4] <= 1013.65) {
                            if (x[3] <= 78.93) {
                                if (x[4] <= 1007.35) {
                                    if (x[3] <= 65.545) {
                                        votes[2] += 0.012269425;
                                    }

                                    else {
                                        votes[2] += -0.0122578135;
                                    }
                                }

                                else {
                                    if (x[2] <= -1.6500001) {
                                        votes[2] += 0.044254165;
                                    }

                                    else {
                                        votes[2] += 0.0077112624;
                                    }
                                }
                            }

                            else {
                                if (x[0] <= 6.55) {
                                    if (x[4] <= 1006.15) {
                                        votes[2] += -0.017707003;
                                    }

                                    else {
                                        votes[2] += 0.0038422737;
                                    }
                                }

                                else {
                                    if (x[4] <= 1006.75) {
                                        votes[2] += -0.026551057;
                                    }

                                    else {
                                        votes[2] += -0.018372172;
                                    }
                                }
                            }
                        }

                        else {
                            if (x[3] <= 86.67) {
                                if (x[3] <= 58.415) {
                                    if (x[0] <= 20.349998) {
                                        votes[2] += 0.0037982885;
                                    }

                                    else {
                                        votes[2] += -0.0146557465;
                                    }
                                }

                                else {
                                    if (x[1] <= 15.75) {
                                        votes[2] += 0.016657706;
                                    }

                                    else {
                                        votes[2] += 0.029434204;
                                    }
                                }
                            }

                            else {
                                if (x[4] <= 1021.75) {
                                    if (x[2] <= 1.3) {
                                        votes[2] += 0.026661549;
                                    }

                                    else {
                                        votes[2] += -0.017074509;
                                    }
                                }

                                else {
                                    if (x[3] <= 89.25) {
                                        votes[2] += 0.015811792;
                                    }

                                    else {
                                        votes[2] += -0.0031397864;
                                    }
                                }
                            }
                        }

                        // tree #29
                        if (x[4] <= 1025.8501) {
                            if (x[0] <= -0.45) {
                                if (x[3] <= 85.48) {
                                    if (x[2] <= -3.4) {
                                        votes[3] += -0.005603208;
                                    }

                                    else {
                                        votes[3] += 0.04717773;
                                    }
                                }

                                else {
                                    votes[3] += -0.02513589;
                                }
                            }

                            else {
                                if (x[3] <= 95.07) {
                                    if (x[3] <= 76.774994) {
                                        votes[3] += -0.028970083;
                                    }

                                    else {
                                        votes[3] += -0.026407782;
                                    }
                                }

                                else {
                                    if (x[4] <= 1024.75) {
                                        votes[3] += -0.018418035;
                                    }

                                    else {
                                        votes[3] += 0.020462412;
                                    }
                                }
                            }
                        }

                        else {
                            if (x[3] <= 80.125) {
                                if (x[4] <= 1042.3501) {
                                    if (x[1] <= 6.8500004) {
                                        votes[3] += -0.019364126;
                                    }

                                    else {
                                        votes[3] += -0.028490582;
                                    }
                                }

                                else {
                                    votes[3] += 0.033096913;
                                }
                            }

                            else {
                                if (x[0] <= 5.95) {
                                    if (x[4] <= 1026.25) {
                                        votes[3] += 0.009985545;
                                    }

                                    else {
                                        votes[3] += -0.025174698;
                                    }
                                }

                                else {
                                    if (x[3] <= 81.045) {
                                        votes[3] += 0.038709495;
                                    }

                                    else {
                                        votes[3] += -0.0079141585;
                                    }
                                }
                            }
                        }

                        // tree #30
                        if (x[0] <= -0.15) {
                            if (x[2] <= -4.8500004) {
                                if (x[3] <= 69.36) {
                                    votes[4] += 0.0051699844;
                                }

                                else {
                                    votes[4] += -0.02288649;
                                }
                            }

                            else {
                                if (x[3] <= 82.7) {
                                    if (x[0] <= -0.75) {
                                        votes[4] += 0.035302963;
                                    }

                                    else {
                                        votes[4] += -0.01950299;
                                    }
                                }

                                else {
                                    if (x[4] <= 1001.3) {
                                        votes[4] += 0.062324297;
                                    }

                                    else {
                                        votes[4] += 0.033983454;
                                    }
                                }
                            }
                        }

                        else {
                            if (x[0] <= 0.05) {
                                if (x[2] <= -2.75) {
                                    votes[4] += -0.021725427;
                                }

                                else {
                                    votes[4] += 0.032444015;
                                }
                            }

                            else {
                                votes[4] += -0.030122453;
                            }
                        }

                        // tree #31
                        if (x[3] <= 69.455) {
                            if (x[3] <= 61.985) {
                                if (x[3] <= 57.305) {
                                    if (x[2] <= 15.55) {
                                        votes[0] += 0.0560341;
                                    }

                                    else {
                                        votes[0] += -0.0009495103;
                                    }
                                }

                                else {
                                    if (x[1] <= 19.150002) {
                                        votes[0] += 0.033410784;
                                    }

                                    else {
                                        votes[0] += 0.052943766;
                                    }
                                }
                            }

                            else {
                                if (x[4] <= 1021.95) {
                                    if (x[4] <= 1013.35) {
                                        votes[0] += -0.002461424;
                                    }

                                    else {
                                        votes[0] += 0.016870312;
                                    }
                                }

                                else {
                                    if (x[1] <= 4.55) {
                                        votes[0] += 0.013053067;
                                    }

                                    else {
                                        votes[0] += 0.03873373;
                                    }
                                }
                            }
                        }

                        else {
                            if (x[4] <= 1023.15) {
                                if (x[2] <= -1.05) {
                                    if (x[4] <= 1001.75) {
                                        votes[0] += -0.009227882;
                                    }

                                    else {
                                        votes[0] += 0.01983062;
                                    }
                                }

                                else {
                                    if (x[4] <= 1010.55) {
                                        votes[0] += -0.023732154;
                                    }

                                    else {
                                        votes[0] += -0.012486736;
                                    }
                                }
                            }

                            else {
                                if (x[3] <= 86.005) {
                                    if (x[0] <= 2.25) {
                                        votes[0] += 0.046638142;
                                    }

                                    else {
                                        votes[0] += 0.007933083;
                                    }
                                }

                                else {
                                    if (x[2] <= -2.0) {
                                        votes[0] += 0.035247203;
                                    }

                                    else {
                                        votes[0] += -0.014869995;
                                    }
                                }
                            }
                        }

                        // tree #32
                        if (x[3] <= 69.905) {
                            if (x[4] <= 1016.25) {
                                if (x[3] <= 64.67) {
                                    if (x[0] <= 14.35) {
                                        votes[1] += 0.017050426;
                                    }

                                    else {
                                        votes[1] += -0.00801337;
                                    }
                                }

                                else {
                                    if (x[2] <= 11.05) {
                                        votes[1] += 0.04086735;
                                    }

                                    else {
                                        votes[1] += 0.0149333;
                                    }
                                }
                            }

                            else {
                                if (x[3] <= 63.355) {
                                    if (x[4] <= 1021.65) {
                                        votes[1] += -0.01619116;
                                    }

                                    else {
                                        votes[1] += -0.024833322;
                                    }
                                }

                                else {
                                    if (x[4] <= 1025.6499) {
                                        votes[1] += 0.0012504285;
                                    }

                                    else {
                                        votes[1] += -0.01775626;
                                    }
                                }
                            }
                        }

                        else {
                            if (x[4] <= 1017.15) {
                                if (x[2] <= -1.05) {
                                    if (x[0] <= 0.05) {
                                        votes[1] += -0.02744925;
                                    }

                                    else {
